{
  "version": "crop-ml-v1",
  "algorithm": "multinomial_logistic_regression",
  "trainedAt": "2026-05-26T04:24:56.351Z",
  "classes": [
    "Papa",
    "Maíz amiláceo",
    "Quinua",
    "Cebada",
    "Haba"
  ],
  "featureNames": [
    "altitud_norm",
    "latitud_norm",
    "longitud_norm",
    "mes_sin",
    "mes_cos",
    "temp_min_norm",
    "temp_max_norm",
    "precip_norm",
    "riesgo_helada",
    "semana_lluviosa",
    "estacion_lluvias_sur",
    "zona_alta_sierra"
  ],
  "weights": [
    [
      1.8058107970941388,
      -0.0898389362041711,
      0.04981521944450796,
      0.0064894936372111136,
      -0.10206451463374573,
      -1.4250377233592768,
      -1.011421922398235,
      -0.14536211819395928,
      0.4138368550380918,
      -0.9537747603487259,
      0.05447461324922027,
      -1.4298767209332715
    ],
    [
      -1.901932799096471,
      -0.10114551548872322,
      0.07105049890592292,
      -0.06807869874130124,
      -0.18485095590794248,
      2.5746927154555097,
      2.557589919437434,
      0.009354765872373832,
      -0.2948201665148779,
      0.9300804635342517,
      -0.07567045900734737,
      -1.9219090438402207
    ],
    [
      0.4761624070263314,
      0.08100213731748387,
      -0.07717805612391027,
      0.004025325640723705,
      0.04814573301432042,
      -0.5965418783736962,
      -1.031932851174583,
      -0.07416961024955333,
      -0.014649757515081012,
      0.27474461226434177,
      -0.14101220429843234,
      3.9769426643259105
    ],
    [
      -0.2423712021545443,
      0.023672830627445934,
      -0.0008172856149875282,
      -0.05338154683796881,
      -0.10517309598908295,
      -0.1400925704945626,
      -0.23433384056319564,
      -0.0899849403527016,
      -0.010608912371253141,
      -0.015362905495269544,
      -0.4225089029263937,
      0.0619171731338422
    ],
    [
      -0.14235287587800097,
      0.0508071502405101,
      -0.058435601784771224,
      0.08536267480869773,
      0.39948431145822644,
      -0.3987334276423624,
      -0.30679288824539985,
      0.29739632253644194,
      -0.07626196685292844,
      -0.24014780524944424,
      0.581972673165252,
      -0.681299177687319
    ]
  ],
  "biases": [
    0.7388061553957198,
    0.7769812315412484,
    -0.6697359488579222,
    -0.4521397639476007,
    -0.3939116741314448
  ],
  "metrics": {
    "accuracyTrain": 0.8452857142857143,
    "accuracyTest": 0.8423333333333334
  }
}