{
  "version": "alert-ml-v1",
  "algorithm": "multinomial_logistic_regression",
  "trainedAt": "2026-05-26T04:39:50.729Z",
  "classes": [
    "normal",
    "lluvia",
    "lluvia_fuerte",
    "helada",
    "critico"
  ],
  "featureNames": [
    "latitud_norm",
    "longitud_norm",
    "altitud_norm",
    "temp_min_norm",
    "temp_max_norm",
    "precip_prob_norm",
    "amplitud_termica",
    "mes_sin",
    "mes_cos",
    "indicador_helada",
    "indicador_lluvia_fuerte",
    "zona_alta_sierra"
  ],
  "weights": [
    [
      -0.25984146137925795,
      0.2220011791188788,
      1.2203926416070436,
      0.9569037371825019,
      1.2065211995177263,
      -3.867456701684557,
      0.3238603755210348,
      -0.011234553352149674,
      -0.009389148200520201,
      -2.620933055955024,
      -1.5931055699807641,
      -0.11913785630968235
    ],
    [
      0.05088896935366407,
      -0.02708172750604085,
      -0.35139317544337084,
      0.26830541067818986,
      0.055192027705506866,
      3.562609137144432,
      -0.24682247863155882,
      -0.03528640621173907,
      0.00803637150839542,
      -1.4314085782083827,
      -2.2618785270992268,
      -0.2290947832680492
    ],
    [
      0.08521600427561124,
      -0.12307689366560916,
      -0.47035978905265274,
      0.21832648067980992,
      -0.15237179633363646,
      0.9608825570948794,
      -0.4541681771766968,
      0.014696113857248777,
      0.016793923333276846,
      -1.3321872802608428,
      3.6195197660729965,
      -0.35378823242020774
    ],
    [
      0.02355287815264614,
      0.021723466571276474,
      0.10772380196917596,
      -0.7147935277739685,
      -0.4001867202571736,
      -1.4981937839082342,
      0.3437418265796578,
      0.04574338895985532,
      -0.025970450129126608,
      3.2193263120291697,
      -1.0572539218734436,
      0.38181476111138557
    ],
    [
      0.17070647275553577,
      -0.12728981818125862,
      -0.45444173700870455,
      -0.701306006895752,
      -0.7119121637871223,
      0.8350977198632166,
      -0.045324119350909256,
      0.023870416880407398,
      0.0022527054622979346,
      2.1255134090293692,
      1.3061841013643487,
      0.27836375670102836
    ]
  ],
  "biases": [
    2.2395060769460233,
    -0.4090229418086509,
    -0.6952274962354106,
    -0.16574578669099538,
    -0.9695098522109691
  ],
  "metrics": {
    "accuracyTrain": 0.9179166666666667,
    "accuracyTest": 0.9073333333333333
  }
}